{"W1": [[0.2115820283772943, 0.25466741868944176, 0.07642868929496613, -0.0370163638999705, -0.20073335952521848, -0.08778912540321548, -0.06279583980122785, -0.32957470724497295, 0.22865453306732936, -0.03931611467605502, -0.2848944202740042, 0.09688557213564739, -0.05573447002370251, -0.22621641962345204, 0.14560930247384501, -0.11064105116697474, -0.3101329398637013, 0.15592590423306946, -0.018414660708335466, -0.15651413395816255, -0.24214115450970564, 0.16475750302874667, -0.1466920679355431, -0.14859219568783222, -0.01154470548966764, -0.032240849874865016, -0.03202595913195532, -0.04554425596033987, -0.34091134319790767, 0.11189905393961044, 0.13969848736743679, -0.24444532197103902, -0.04447957908148843, -0.020469847651977572, 0.004745304533562216, -0.1594710478985104, 0.05849855979954517, 0.164287160967645, -0.048830528201817165, 0.2976803341895531, 0.029613555120798874, 0.13912224422021205, 0.081084666291331, -0.16549930333722604, -0.21682643517439668, 0.2439512532567941, 0.02204985288435078, 0.2730296666366009, -0.023239561406546195, 0.0888014129470355, 0.25791548178691365, 0.20964007511710908, -0.2072405506795391, -0.2386284390134605, 0.1445786205417461, 0.39916526526018703, 0.25400650565576544, -0.32981531195666147, -0.2134509254850991, -0.14916966641541912, -0.13807448952552534, -0.0490656657811321, 0.16965914864507764, -0.0012907947889762524], [0.2837922664349757, 0.14796685180414448, 0.09173610027224927, 0.028220730936153713, -0.13281343917715216, -0.14639198951966598, -0.10854497359432363, -0.10764919067010105, 0.10832276000852445, -0.2483786656900584, -0.12200829687161013, 0.008732290488459065, 0.21535594589618295, -0.15101875368712026, 0.12490993553423509, -0.25016319562691, -0.15898672102606135, 0.3430100813019537, 0.012036305350688078, 0.01247658994811999, -0.27876284675611196, 0.09504040301254504, 0.14809151163973092, -0.2060605435656896, -0.2497460142775946, 0.1593668580644753, -0.04202028134933772, -0.023821809538189125, -0.2895503332445301, 0.16674785059172592, -0.09108725968712648, 0.11307844702312714, -0.011954616553445327, -0.13588038600009567, 0.06475702189428925, -0.2343859755702309, 0.06254298720475923, -0.05386376382394991, -0.07984651114381836, 0.1058756945084409, -0.41759435529331196, 0.2297053677653459, -0.09884114029179496, -0.0016844034023205262, -0.2544512756564394, 0.25817962412739404, -0.03506291939302827, 0.32668401490764715, -0.08515910549234211, 0.13779620031151274, -0.052340385569922, 0.31643626611830183, -0.1448054136494123, -0.106934434550963, 0.11271582979571519, 0.1473897909375415, 0.0021117897610522227, -0.1967074724478679, -0.2266834959305582, -0.08355751006365911, -0.037838156400168466, 0.03630797255619614, 0.15715246683116985, -0.0780454087887533], [0.17362719080348207, -0.01762131268588018, 0.0355240665090286, -0.06469890452568618, -0.02357427236512694, -0.06562133769280934, -0.1561409337858165, -0.16286219482291978, 0.05559978932566248, -0.12561850614259057, -0.2080222065739844, -0.1897190859924828, -0.023537682234324522, -0.14308683805069183, 0.13821295667131736, 0.012220291492401246, -0.10575457719146693, 0.06636769345551849, 0.15291639783206226, -0.11594962638353928, 0.027588255424536873, 0.23408579787895586, 0.1690015473100824, -0.15900126178721435, -0.3976191603250219, 0.17246719805913133, 0.036666160232023425, -0.02685693576925823, -0.18427404521828591, 0.03011746755558924, -0.035268204384932646, 0.11690694083960569, -0.23876326837893688, -0.19783978001760727, 0.10156985379483362, -0.09808150657252858, -0.08081265972904603, 0.0934863772074867, 0.03934728796015453, 0.20339140926138038, -0.16040273153281995, 0.17379477332026755, -0.043339899226076874, -0.1492318080806851, -0.13654967468045995, 0.2838509633998633, 0.17346447489106348, 0.0039254926354845895, -0.08859552576242954, -0.1104475502479403, 0.09219699269025994, 0.07103710253278037, -0.19268502588845607, -0.19825378743738759, 0.18453580182387125, 0.0759673582807278, 0.11432471852425533, -0.2957143116903959, -0.09337273117733787, -0.09051781329008662, -0.06285812621247781, 0.10594429565833285, 0.021785271141251145, -0.1814869406461629], [0.11497986729166322, -0.06500127448922605, -0.11689711287482013, 0.10880710163999092, -0.06470711217982647, -0.09839472460204104, -0.042743797957618845, -0.20278946020100316, 0.04517017368784657, -0.06893673434038593, 0.003979741235055953, -0.03947300644019758, 0.11749710734788796, -0.08441746571429051, 0.10459823099560095, -0.1338468981630548, -0.13146437923219362, -0.04113774297178652, -0.07227386121737026, -0.016003717409526285, 0.0597467809190088, 0.04131744338393629, -0.004011101162415934, 0.11134898181966413, -0.06916199480427491, 0.17893504287024067, -0.04953424427537705, -0.03621827588120102, 0.12241877738146134, 0.036292066284876835, 0.060879508875012776, -0.1146397252419061, -0.036163125414744944, -0.053878504458972534, 0.06454856487771155, -0.2272804524161906, 0.01130033578472937, -0.006787232974465496, -0.028420684540699428, 0.14635697574679762, 0.06495927056493346, -0.13121936159229886, -0.04782213102827466, -0.13026215021935886, -0.05590627734217492, 0.17044309052525577, 0.014979193738235697, 0.08735986230988571, -0.09452434923997394, -0.06949854428783334, -0.040831725108027746, 0.2976561324268418, -0.08489425799400444, 0.004680936041996662, -0.023164815616968492, 0.14801096873899777, 0.13823613186859024, -0.24144333822043418, -0.09416852046455755, -0.1547378314387065, -0.12435991665659521, -0.01663877466200739, 0.03568595524928464, -0.14050928604498086], [0.28004602726899114, 0.010525305669167186, -0.17319742490448523, -0.09304706851857755, -0.21424269464949605, -0.059434755532517695, -0.04872811230570806, -0.22661717593191566, 0.17224696929501435, -0.262744706952755, -0.05284388232106209, 0.12902437415159057, 0.020884390411650012, -0.28132199301745336, 0.1849419605181165, -0.3515298518280432, -0.11189784828893452, 0.20717101272026553, 0.07093378973396645, -0.1333148315239293, -0.35088459679591777, 0.3838975500429789, 0.07725014953466657, -0.1154357850590096, -0.3217114185945606, 0.31150118001384897, 0.1750540392530906, 0.14538803852354149, -0.24491069077362654, 0.04362709994172227, 0.16118309754694546, 0.04322191826813863, -0.30791054839682724, -0.2736862867950254, 0.14770822740446218, -0.19875620545529868, 0.0730045322207577, -0.025806154638852167, -0.09875713856762432, 0.17619586796362796, -0.524274068973632, 0.09865238491304813, -0.011686515278678146, -0.15479685789111164, -0.032367207992491875, 0.1415728483207917, 0.1622804036464806, 0.25833129257122517, -0.07679461685732948, -0.12365189168125909, -0.03637858222164873, 0.16693711791348473, -0.28477660775643004, -0.22057247662782536, 0.1335059874919058, 0.36784257653865265, 0.13619362589158662, -0.17923305864130246, -0.3636809864104805, -0.11988223471548387, -0.13283061068972105, -0.10968673005962405, 0.14493943000419443, -0.18691795816324658]], "b1": [0.29875139681858376, 0.2326931160660944, -0.019423953477452762, -0.031936654478760096, -0.270842606694616, -0.11518192608519336, -0.1480736896462937, -0.2167809399645066, 0.2757529473294125, -0.35574700837662043, -0.2902993082721876, 0.04781720772667532, -0.014331734908529375, -0.3580287236718226, 0.21621216678756436, -0.33914603849265995, -0.308576433425469, 0.23776512819015316, -0.03417669893332208, -0.11090454680211463, -0.2896275675420677, 0.3220682379857131, 0.11171856604465741, -0.22273140195712396, -0.3484608363615408, 0.2546542495987798, 0.026586582958594833, 0.01899218387900992, -0.36787586048756543, 0.06134468802250666, 0.07736484627508342, -0.07593163301719204, -0.17046085441442382, -0.2864973478850013, -0.0003861946849421456, -0.22288885630907196, -0.03204016609816056, 0.0562753211858564, -0.05977491205236149, 0.23071933233583117, -0.38441755293931973, 0.2061437708118569, 0.017278918291219615, -0.17517685327772536, -0.1996296131313663, 0.36819172429640357, 0.09108436162442887, 0.35762651757606145, -0.052073899676786176, 0.0009618289101520358, -0.00819971136860355, 0.24134993038407648, -0.250989318873764, -0.1594724038513631, 0.2007392368278794, 0.3576716192052985, 0.1817681220317577, -0.27248708267705696, -0.334065143859085, -0.16590287424791256, -0.12508684212973528, -0.07175809079170681, 0.19103839157552444, -0.17202752295455917], "W2": [[-0.20996940940980693, -0.3771999202066937, -0.24581994961060583, -0.11710467505225022, -0.0057989847573305196, -0.08867335284865091, -0.0539736639983237, -0.03800843318460203, -0.14663837650064637, -0.11983599150988876, -0.17258910246985434, -0.25885026005987344, -0.2688555852641505, -0.08665159101201483, -0.14199498446455186], [-0.10368132892597592, -0.10347215742261709, -0.06725702423305603, -0.18755381103744392, -0.08792138848734427, -0.04316611500915644, -0.10938811781238272, -0.14273725182054564, -0.000706014745941041, -0.017323819137994575, -0.056443878961962096, 0.13684229532083517, -0.08482543122553475, -0.41558334252558576, -0.0063616991710508585], [0.1169660168434333, 0.1137087114735531, -0.06102862471007374, 0.13644983710991307, 0.03635830166591797, -0.07739448324028303, 0.08245978268874353, -0.08895522066455969, 0.05920532714063954, -0.048662019381934596, -0.10635335375874357, -0.06249156158199304, 0.013446586026761046, 0.005689616240645208, 0.012382312221132133], [0.06980464680445535, 0.12148174305846472, 0.05701560111673936, 0.03725798849559706, 0.0759528414263586, 0.06729302499148168, -0.005808766748061084, -0.0631036688426513, -0.18501299748671315, -0.06735512945616609, -0.0003353044472665114, 0.03172075956089588, -0.1112572430782729, 0.005383641983677849, 0.21063262612049147], [0.045417852690351944, 0.30142437895962854, 0.12742841259594517, 0.10302266009820366, 0.1419357015200842, 0.1997366706319937, 0.17256179177010944, 0.24121441933220797, 0.11023906250349425, -0.008599020234645897, -0.057956861887294236, 0.06036761823670987, 0.09634969514525761, 0.19812041732123162, 0.03650505404769708], [0.05452580216814503, -0.04187230066580994, 0.029664567316253873, -0.0496677473716772, 0.09666338164045024, -0.05060984737132359, 0.15745597768587666, 0.08846868035409189, 0.08790729148335492, 0.03313842502994671, 0.3252117656712495, 0.05624652069654969, -0.018636015881995278, -0.013179264199531427, 0.06739332660404448], [-0.0849240132462006, 0.12132927448367532, -0.10983288920983734, 0.05579769888214734, 0.18109708912449485, -0.04389083229406792, 0.07110309947066536, 0.22765200044318643, -0.0014606786398464343, 0.05117586398975747, 0.06975219180383757, 0.15370587230964136, 0.017144568437653218, 0.2105677363749417, 0.03893409506478713], [0.10676703912553777, -0.003399865292051259, 0.29965008110018226, 0.10585893180855489, 0.21257591261303066, 0.1537906349255266, 0.21266487373380025, 0.06785420571025606, 0.029911728175006175, -0.02906467593337232, 0.18392470571347264, 0.018232004895321438, 0.22115745367440667, 0.1313123093135186, 0.2053130832130304], [0.01629763449712209, -0.09392551227324818, -0.2606564038754784, -0.09277296290577411, -0.09570589141227683, -0.1732366136108467, -0.11326899617364747, -0.10203973869810028, -0.09228368387167621, -0.09762120891742201, -0.0755368205653815, -0.12847958301718806, -0.036972276682402154, -0.2383992556356562, -0.1874124949994664], [0.17287834618436146, -0.05000067386414368, 0.2232359842984635, 0.05614872955765881, -0.09709835484350055, 0.07896736643604294, 0.25106856631794594, 0.3163712159230578, 0.2648421681439203, 0.20665874954157415, 0.1525687547014947, 0.04311469710783575, 0.25274755089744144, 0.19313884963489578, 0.26785556971870356], [-0.00707797139662967, 0.11171884945845528, 0.08522188233293841, 0.119318490604287, 0.18511563937994271, 0.04794139281614745, 0.04445893885041843, 0.02107932581220209, -0.03268272798977488, 0.2754103154166661, 0.2736595354548191, 0.1843116882184767, 0.26184779948701187, 0.13542293125736074, 0.1372054022936937], [-0.04905913671409896, -0.10995088905751546, 0.08883999474356001, -0.03550437259094748, -0.02865511989643532, 0.021518799124557647, 0.17487392472568358, 0.018789076565354328, -0.062240829422819784, -0.03427476098598151, -0.1404965409467856, -0.09203109342735072, -0.015660945886755533, 0.0398890357882279, 0.0008214498612075012], [-0.003379088957699443, 0.014843182944324688, -0.07901444322402064, 0.03992424496070636, -0.07294835675277675, 0.1323361474829235, -0.03808527913902209, -0.06047820485073, 0.03646457094159939, -0.24781902751792262, 0.13826614261580666, 0.13201021216348371, 0.0033555628007768384, -0.12130775665360906, -0.19708411730419675], [-0.0026882897310960114, 0.20862120751155647, 0.06108016148683422, 0.09080642952873334, 0.2414764792381697, 0.2165539399995962, 0.1613286460320582, 0.20601202450231046, 0.2413741241195344, 0.3061110541561266, 0.18811364039885503, 0.10012154944490534, 0.21098614065400595, 0.09616302110249447, 0.22192424384345769], [-0.17608544860060082, -0.1625159059445783, -0.18638489966570754, -0.17610566017124726, -0.12578434145235015, -0.1226724618081854, -0.028103784866609773, -0.169872636312359, -0.07171600764884847, 0.0357762406972153, -0.015457708088771739, -0.11997678305330998, -0.017741102430964262, -0.15201097406142217, -0.018265114923783254], [0.2768260568226781, 0.1849879112759481, 0.1380637629774122, 0.09656270681164941, 0.09620668419732065, 0.13930987290086227, 0.20229126214687135, 0.13319602435261055, 0.06771019400736118, 0.16568390008812245, -0.021706407323990814, 0.06715808573857711, 0.3313997309166341, 0.30592855057881224, 0.18774731631564395], [-0.02674364207850362, 0.1500663392871803, 0.06050874255149965, 0.23760530764463245, 0.3401979187190598, 0.14101326458425245, -0.001142048329035566, 0.13453518096033257, 0.2183095692099749, 0.0409285681964144, 0.09143213009572007, 0.16374920570051452, 0.2579198093029447, 0.15303058914162926, 0.07627696262055143], [-0.1264057206720816, 0.01864407601027642, -0.054312683684607024, -0.1864099966593603, -0.1745091998186387, -0.21264464648318576, -0.16582071202326654, 0.051557318369231386, -0.1320386967378693, -0.10150449517253189, -0.20135480308304932, -0.019728876065205434, -0.09296999343212045, -0.2315562469424543, -0.1698612913460008], [-0.023321129624695392, 0.02835006813364911, 0.03991543888762653, -0.044880521737503835, 0.1071877930057897, -0.07615879697255008, 0.0755661475201481, 0.0233570891213205, -0.01748777553065253, -0.08307159805850614, -0.3403921301267333, 0.10875808316459025, -0.07726242406386229, 0.02641241652083648, 0.28385420272684503], [0.15288342279121897, 0.08269568191055202, 0.10008606015378889, 0.025667409252420382, -0.008288976925264578, -0.0355868346237284, 0.10444380939520301, -0.029046614509215068, 0.09990775013954885, -0.13413630209064498, 0.15903225145229113, -0.046332230922233604, 0.05614666087666558, 0.07627031638253895, 0.16811480010554244], [0.13409406166788648, 0.28098313130731195, 0.09911725130070673, 0.21758111197934032, -0.012683818857567496, 0.0706463205048081, 0.13303763472665128, 0.18879200519772854, 0.2455780045717881, 0.08522204869247708, 0.11889893018302708, 0.21096729194177472, 0.2854175794325258, 0.027375595578014247, 0.08739882930549348], [-0.21632498698954233, -0.11873343505029052, -0.22156781050832486, -0.04662741723112307, -0.1696181106273241, -0.18700525802831097, -0.3499751815310956, -0.14370296948528233, -0.3213247503794153, -0.03134519396894963, -0.18522638610936493, 0.04117333080053997, -0.15787817288088235, -0.12913526822056048, -0.15553845474727704], [-0.09827016147562317, -0.02673266002135273, -0.055693464824336285, -0.09515590962648908, -0.05400156813091269, 0.016112355035055162, 0.09213212491268381, 0.10861430407260002, -0.1625223416502251, 0.0874164225888674, -0.0023616711049540898, -0.24949820605549314, 0.061064984956525716, -0.027069214026681408, -0.12565833341943422], [0.0892294429283425, 0.04211806837946492, -0.03417196931005111, 0.14342534207687707, 0.037600746099310425, 0.11667898444801679, 0.14291962874199218, 0.03458054491632923, 0.06191549212560374, 0.0454081882384821, 0.11233643347596448, 0.1197005689040137, 0.09145887714671426, 0.15108867707321902, 0.3478141921248636], [0.17367448599866667, 0.0953563459582044, 0.23487781371711272, -0.017159010223756713, 0.4139954033483894, 0.07093059971084256, 0.09621209358756577, 0.2106643793189257, 0.10277207661128233, 0.1384724040934745, 0.4957327475580055, 0.371097661946415, -0.004479633395400385, -0.003114082556639902, 0.12211438739498956], [0.003649291308894992, 0.005322869418886178, -0.024882478756876818, -0.27189559511896016, -0.06919878114039418, -0.1522395703252849, -0.10140550424434192, -0.1764417284583893, -0.12063463457543, -0.29438826130862406, -0.1302593254640423, -0.18726011713109658, -0.06902922414091829, -0.08528340508448495, -0.2146602318437553], [-0.07904398461248219, 0.044554964166399605, 0.04058257505571196, 0.09618721970344592, 0.08022808751788624, -0.04836151554602067, -0.4047595754635136, 0.23230618472581313, -0.09041152930237605, -0.059980544828775316, 0.07937189928957128, -0.16704808031693094, -0.047849041259004105, 0.08343521289031791, -0.04529542281310537], [0.03350116478668392, 0.05205884815159422, 0.011327802662375047, 0.007762415095417797, 0.13861480722720027, 0.05621318408960206, -0.3285205988702419, -0.06099628704214372, 0.02820340703711908, -0.009651324880803242, 0.04996803991354399, -0.1973593866729904, 0.008751105744591646, -0.05198701029851972, 0.07190745104381073], [0.15786537450954477, 0.09757689890650327, 0.1140172012991088, 0.28050666781800837, 0.3489002361550304, 0.12403430060814216, 0.0919063309855951, 0.4235816628864186, 0.14245607524458603, 0.019863090436212254, 0.15239066844080282, 0.3033375121761332, 0.1950049400348109, 0.3072744464846964, -0.00022799140846856185], [-0.1071757787481494, 0.14119970296408416, -0.17467563898511437, 0.0034496594577400723, -0.12498579959745229, -0.11044968547927073, 0.010287041980764553, 0.06048021289999358, 0.15241935356815348, -0.05023900435445457, -0.09945294833171729, -0.24695936936463897, -0.04175591200990007, 0.014744610662971723, -0.019036973139177384], [-0.12329115259538742, -0.015066855340314086, -0.07115561922842971, -0.07964606092228588, -0.019987759091406102, -0.10552782098233315, 0.11163215156942263, 0.064478837804784, -0.028965257456612888, 0.038929818647601776, 0.1108715630205293, 0.04388848644827087, -0.06324103976308931, -0.23061724672546258, -0.18505922797257393], [0.14760839452174856, 0.3146257298745671, -0.1409789270425467, -0.04043941261590622, -0.08360187300009043, 0.1360275863146078, 0.05709173806617652, 0.014929522724953976, -0.07118045242840332, -0.05840394117371021, 0.011935756977398201, 0.05214248519714193, -0.03580555912273059, -0.006674330654861264, -0.004653232320785096], [0.03293307652392322, -0.02544999266548878, 0.1228837474706423, 0.3226619747959856, 0.14164352936041225, 0.010252768471032772, 0.07893384895571856, 0.053089817499101535, 0.19396577795810094, 0.06252319568438604, 0.1321249991277235, 0.09651600995825668, 0.02473743729133277, 0.03438735341935001, 0.05672524920829869], [0.17278607297583257, 0.24590445001559472, 0.18623722521906194, -0.1263129888984734, 0.043220225377822566, 0.12210339205094504, 0.13279401385379477, 0.21906958501987048, 0.25269613128389806, 0.012814924692822917, 0.0676863256369927, 0.13935024027754067, 0.1924253603993801, 0.015121380553272001, 0.12161935115110091], [0.11066776512852997, 0.075355534380772, 0.047568061091586775, -0.1564498920290305, -0.039922362155418036, 0.013449926293866266, -0.1494886793010665, 0.0034359983301831703, 0.0031385841424574393, 0.12373553237366558, -0.19226932533056007, 0.049217986032967585, -0.06647226195145782, -0.170388201688782, 0.02744665236870469], [0.25245261148847686, 0.1943333193006789, 0.09996579961990498, 0.2078298732262429, 0.14474417826590413, 0.15545206476901488, 0.07476356278672772, -0.04185017720606338, 0.22361805035007393, -0.006646527271245066, 0.056569945613450454, 0.11826880131014396, 0.11850415807851632, 0.13739694614919334, -0.05151092548241922], [-0.1067253826931541, -0.014207094203055205, -0.01870437114697586, -0.1269480963360826, -0.09146408474611296, 0.06073536673791431, 0.02072280015851945, 0.052283452205771845, 0.1534274358358018, -0.10170276456733153, 0.05815871900144104, 0.1043203655990852, -0.01804396785986706, -0.01647989421693906, -0.07064847212620658], [-0.013066340184966125, -0.0045923579809307785, 0.09062140606658478, -0.05702778816096716, -0.14995337298890052, -0.018846788164581865, -0.05883016674378144, -0.14124799159135454, -0.24783476068816396, 0.16983563985802777, 0.02431045472870756, -0.08880126127506413, 0.07692493859684853, 0.04433010919716497, 0.04713925487128163], [0.09024461200054577, -0.09516420894678919, 0.19460502490246775, -0.0642992175082236, -0.04520014989225813, -0.1266603898078554, 0.09925783671114412, 0.12552065480150104, 0.06017249407037108, -0.19819372309221767, 0.09788097186096002, 0.18546151449517262, 0.31892594358972975, -0.10274298780366221, -0.22372088561806525], [-0.22685019744814344, -0.2115918628694848, -0.1531491830538634, 0.002254672742266787, -0.22680204344882507, -0.21251087207900124, -0.10548605265637477, -0.09450432997210179, -0.06898638110804008, 0.0036637630257720776, -0.26941908155770034, -0.11199859756568581, -0.015135394812001378, -0.04827896483569032, -0.04711905183518048], [0.21712113623660134, 0.28860134980435376, 0.10595788305563328, 0.17807891769385156, 0.16861243467209833, 0.25773523546010396, 0.23400484732552432, 0.27034261087706307, 0.18220689701476914, 0.09916741906023069, -0.08913068279754426, 0.2279175422128727, 0.3872635408248744, 0.0986792866895956, 0.41650638417463054], [-0.13937302829226775, -0.053695663307533094, -0.10701572823453434, -0.0631932247632033, -0.14065155081730027, -0.07192064775744628, -0.16952536908712204, -0.10599031192873214, -0.2107672717480212, 0.06158715579528998, 0.00121721381740365, -0.1890680092384412, -0.13342322298889694, -0.00891151531998813, -0.016369825691515953], [-0.005098971236889914, -0.14941235796161156, 0.17743761614501197, 0.1023765176217319, -0.0713386396371131, 0.24877219215642435, -0.0019036741951279905, -0.11316138324820393, 0.06236283758087888, -0.0006525983938434942, -0.17622470056428485, 0.10719348853558287, -0.12455814782816535, 0.00034909102490631615, -0.012412468679142984], [0.09853918083144632, -0.05953746555358796, 0.034069722347172704, 0.2722052793155423, 0.07263833068258574, 0.12264333645702034, 0.05203725883924778, 0.03560617767887963, 0.05668877217905013, -0.024972717011082356, 0.3376791546644378, 0.08863699735063886, 0.12261161310210333, -0.20599217231524333, 0.20990344174575998], [0.1387996142784769, 0.07760064770110738, 0.22302665771100066, 0.13329311058199972, 0.04186702369055732, 0.05115743156795612, 0.18823708777430462, 0.053683543613366975, 0.05554171564859557, 0.04360409350107697, 0.15460678979447823, 0.10501821322296064, 0.04247441546354226, -0.03877484450733589, 0.19529938761332163], [-0.06334982753970556, -0.09053194262649382, -0.27553024977598384, -0.07044366051699315, -0.1164298862699723, -0.21219728542616983, -0.34420082664061086, -0.12936279921664903, -0.025415861363938887, -0.0919760635882819, -0.17416208656818816, -0.2924343921850082, -0.2490139505711098, -0.2877194378398694, -0.2715019694583794], [-0.046828700801135784, -0.01683777165670266, 0.04510325463544348, -0.008642442392286216, -0.016711109650451857, -0.17833678202596145, 0.04609789305271685, -0.08865008784815107, -0.2477024602403189, 0.05653814263659696, -0.0390851450744244, 0.08954029983082136, -0.11675379365634705, -0.12338886509555179, 0.011249349250226765], [-0.28624499570926754, -0.18108818437018945, -0.09742211614866281, -0.15978745507742678, -0.2268036630885563, -0.32232800398535233, -0.11625363449344513, -0.20310557255182418, -0.22376468066691826, -0.051152392269048955, -0.3949460466247849, -0.1023465392942053, -0.08214143495869952, -0.013459247765576485, -0.0881824473573496], [0.05238939910075201, -0.021266724207672807, -0.014401090902634039, 0.05631435556684055, 0.1209868900817062, 0.07078327305997399, -0.02197131676376206, -0.16793565201124222, -0.08607721119356097, 0.04001805416743858, 0.1061315135908296, 0.10522030880768843, 0.07441948041867054, 0.19014271685880027, -0.04892764139274705], [-0.07010394313481884, -0.007594359298316102, 0.05782999967440313, 0.04803254044177035, -0.1937116232532298, 0.06007923200740108, -0.014267964576089795, 0.04709517143134796, 0.0197369176730169, -0.11263919183483159, 0.03530620103346093, 0.13604721889315546, -0.028336725634103232, 0.11149074077931907, -0.11865672140281427], [0.05188784164540919, -0.07334348901493297, 0.016015960791181973, 0.10645950619693191, -0.08063883211906399, -0.1303055625880773, 0.09197413087756641, -0.06794354073014269, -0.037420286432665095, 0.04040551693861367, -0.06904616355844576, 0.08949921959809043, -0.14534991348708773, 0.0713900639542293, -0.046472134134726534], [-0.18509860393851538, -0.15377837814224243, -0.17370892557720874, -0.31947463407925947, -0.11662915058304547, -0.17166031905162002, -0.012714189043672618, -0.20473241649504453, -0.0731159609158329, 0.029226242826776137, 0.009167673651018924, -0.2789282053999207, -0.18577158910811636, -0.05495390507086061, -0.07498738072208967], [0.11547731656231287, 0.13132712009325898, 0.0954676040509926, 0.18049121010734015, 0.09909552824191342, 0.019301320962291986, 0.1747058641951851, 0.19157092974109044, 0.1927276557454672, -0.06013547883581861, 0.12033087341924319, 0.09338349643349274, 0.09613673311155359, 0.3615605756503847, 0.17980206206466723], [0.25211537685651725, 0.11780863353316026, 0.031223708899029364, 0.16095179856342035, 0.22827211479009432, 0.04737849314454597, 0.05904764416603154, 0.22967186574787418, -0.0002477506062508038, -0.017534865861540364, 0.009155600845292475, 0.09290131600356152, 0.09585589382823151, 0.11928477715511998, 0.043494506351300796], [-0.1735986638661985, -0.30526997203111866, -0.07259730402151289, 0.03527357896611739, 0.022220206590337174, -0.00756610571488277, -0.23925926810742734, -0.1442101220133622, -0.06374487424201603, -0.05285468739380723, -0.08117268445182517, 0.012185216928562509, -0.15185052042130942, -0.08515088338903562, -0.038169184130511125], [-0.05967741510557774, -0.23621281002913783, -0.16463110146186172, -0.262769020142464, -0.22423555697872427, -0.32467623813370017, -0.3595424176210899, -0.24317977537675925, -0.23163367409060778, -0.12434285262102004, -0.1688264897599312, -0.11742007397276856, -0.0404039818770625, -0.24376675761904995, -0.17556786060177054], [-0.24062003006059013, 0.011498352209117366, -0.01114903709318309, -0.15658012596542092, -0.05115854736590419, -0.15036732207179498, -0.03436586297633211, -0.06904996992583808, -0.10215150008698787, 0.015909733091805756, -0.09401164142803194, -0.14935804385281937, 0.11807505181950709, -0.30750176003735247, -0.09144832502669138], [0.14709714604727364, 0.183665557416951, 0.2696381426247928, 0.31761015508396756, 0.22264835626087554, 0.07878095365287313, 0.09363848805293454, 0.13476123414607802, 0.10603901213316394, 0.14508374664347592, 0.20258472422799942, 0.17121374877238058, -0.08777128166768004, 0.3124195951597129, 0.09097846467383769], [0.19878832391372442, 0.307234296271319, 0.2812436324350662, 0.15811850671773914, 0.008657485075833816, 0.22764503086770904, 0.23068793041247027, 0.1783243477848894, 0.3119820728348783, 0.007144875812397932, 0.017444734818514263, 0.07869517064622628, 0.18980641609081148, 0.014524437063744086, 0.37133037593903656], [0.1466991697513554, 0.02666272977480383, 0.062042208617463054, 0.08809657033900695, 0.08355654828482985, 0.0339787096276105, -0.0056465797378048585, 0.1471171939597833, 0.04443251405497258, -0.17261351714278833, 0.10684237050090548, 0.14584312627209292, 0.11364297529647197, 0.19643277841125828, 0.07949818372230698], [0.023764706313551258, 0.11607949744603124, 0.06052511450151296, 0.057946368948549244, 0.11788064581095443, 0.10728404061224826, -0.0038113726368099953, 0.07917553880461033, 0.11899617506874284, 0.05339989639008211, -0.048187801356460634, 0.1385536746236588, 0.021846990957997078, 0.035878179664102706, 0.0699155600976379], [0.099216427877795, -0.032649935002856685, -0.09656657127295123, 0.26167620025946053, 0.10009625704367865, -0.20036542387384765, 0.09472573646626287, -0.047076749533783, 0.050229838301043626, 0.005969462170017803, -0.20099592401364075, 0.14702603896745228, 0.08943979951763156, 0.03825244416267254, 0.0846893983722739], [-0.07714294807711589, -0.15456381412258324, -0.15932610363500394, 0.015093618872577269, -0.09554986128611723, -0.02559455810526138, -0.15401860960555322, -0.07779763540409548, -0.06667800799430948, 0.010695104502638825, -0.20684354319049408, -0.03663224610220233, -0.12593629076373766, -0.004574845485628163, -0.08747081779701102], [0.1059590181366051, -0.07347778129794034, 0.1178230752644658, 0.11674852320515834, 0.025897877415461023, 0.2613382570970561, 0.07142510076149851, -0.0034735380310143902, 0.12350645325304137, -0.16585007716649922, 0.10718901974482135, 0.17854362080117495, -0.0012745679543681413, 0.13700963980523545, 0.10525736197851791]], "b2": [-0.36278921442927575, -0.39384957317086416, -0.3679533008956208, -0.3255044178207816, -0.3522562716196432, -0.3433255719771621, -0.3044023359860093, -0.2950569954180427, -0.37671340492280986, -0.25695922047984077, -0.4152020732389371, -0.38046819553236116, -0.37741053782530437, -0.3623567480025171, -0.2999757441713925]}