{"W1": [[0.21655260208352548, 0.2566009844078621, 0.07666640450821596, -0.03681122512474609, -0.20376527693167573, -0.08923898169442485, -0.06498238228957999, -0.33288502261498987, 0.23239298466400787, -0.04413710260451297, -0.28900349485174154, 0.09764469454320525, -0.053529052272322526, -0.23161165317986585, 0.14878111471037775, -0.11619891137503073, -0.31447547725294567, 0.15868664092594567, -0.017302917363033295, -0.15643771442120488, -0.24425159171205824, 0.16760579593200442, -0.14615127147642143, -0.14993239555969803, -0.01600156539425069, -0.025969780469914237, -0.031303361070367235, -0.04508372579093288, -0.3423698676611572, 0.11416748891834287, 0.14064595488113057, -0.24420688604870905, -0.04754707446479201, -0.023061972791485343, 0.004253322795866932, -0.1624991368337674, 0.05995447338316407, 0.16323738089472167, -0.04760468591087523, 0.30114878924027816, 0.027540087002503013, 0.13991243735897513, 0.08017612743878089, -0.16757990409501564, -0.21996555299854467, 0.2497112228773712, 0.022603746451532025, 0.27739541275770974, -0.024957218311152204, 0.08948244405981695, 0.2574716307873031, 0.2119710810080347, -0.2101428319127079, -0.24066757873966416, 0.14651358378777032, 0.40479923863234096, 0.25695780450043415, -0.33596223092809685, -0.21719625030666934, -0.1497397347384683, -0.14046422469781428, -0.0500890893382805, 0.17152990317604463, -0.0023217944226791255], [0.2843785178244968, 0.1483456118539957, 0.09210842004864682, 0.029775863930037935, -0.13309232715977873, -0.14649154397448005, -0.10894045950099272, -0.10726851795408938, 0.10856440280135428, -0.24892960968696115, -0.12320104534488456, 0.00905705992654905, 0.2160452119830393, -0.15206413210861916, 0.125104678110249, -0.25082751342156356, -0.15943859665164287, 0.3433138537062934, 0.014203851084026713, 0.014040742377610587, -0.27916190920660633, 0.09515989114305484, 0.14718075038400713, -0.20542703963837813, -0.25037235668954644, 0.16047830138287653, -0.04178405967722922, -0.023313408272513148, -0.28990035915001877, 0.16718025357180416, -0.0921876371594108, 0.11337122078972799, -0.012439755727661593, -0.1359406587889927, 0.06415387759591992, -0.23490007811289768, 0.06293732933682143, -0.05472640941063478, -0.07973075583529068, 0.10616413406119575, -0.4176654922313786, 0.2296312256700351, -0.09897865892322377, -0.0008639718471330917, -0.25442897176999735, 0.2585175143005501, -0.035202853011211274, 0.32717570081272734, -0.08584210697317254, 0.13793300112805107, -0.052848471570713616, 0.316528778672548, -0.14447535033782752, -0.10703220802349962, 0.11314294613007399, 0.14801871764610738, 0.0019912173788292063, -0.19756402523843317, -0.22642899364313285, -0.08248517920981639, -0.03812582788133987, 0.03661089905015022, 0.15707348988277633, -0.07696296877109028], [0.17752803153534816, -0.01605248850122623, 0.03567092577028512, -0.06448830170253804, -0.02605697701001052, -0.06668708510861816, -0.15780391699746177, -0.16538073070465759, 0.05855079786929156, -0.12923808750011628, -0.21113320223261348, -0.18915978483454218, -0.022060648682507275, -0.14722014784176113, 0.14079155584656644, 0.007933707240719389, -0.1091886984501868, 0.06847349264518057, 0.15383540738752985, -0.11594815757888505, 0.026007813039108298, 0.23634321362815702, 0.1694614232151698, -0.15989270954864748, -0.40103909640547636, 0.17698449358841228, 0.037123453956457955, -0.026507640905361837, -0.1853283791438154, 0.03185201900839719, -0.0345277995223035, 0.11704442661212724, -0.24113856586483254, -0.199837147111814, 0.1013301838138485, -0.10036378214190286, -0.07977250629432642, 0.09281601496576539, 0.04008774034992145, 0.20614575490242354, -0.16180374908678752, 0.17437845344449593, -0.044082313069312734, -0.15079814963724444, -0.13898169929322546, 0.2883344799549246, 0.173953300211599, 0.007517595730172202, -0.08994012100238566, -0.1100657443436069, 0.09184930966332677, 0.072684560933908, -0.19510618242992012, -0.1999133242126641, 0.18599706282039602, 0.08062787433098909, 0.11663250654598611, -0.300179418165144, -0.09643400574170945, -0.0910837472119507, -0.06463797766532248, 0.10519519790184781, 0.023266236491059456, -0.18244026782317058], [0.07000324094535548, -0.08253566305618133, -0.11640733616444107, 0.11260807934082281, -0.03478816047977231, -0.08648714844165332, -0.02465970016677244, -0.16995571993961947, 0.011149392522528239, -0.029203837515177525, 0.03399114260123741, -0.04450140864593698, 0.10764094587171721, -0.04061590042559071, 0.07252436388884873, -0.08534330471466743, -0.09086591419342897, -0.06409580305050856, -0.0749134490813889, -0.008515761425942691, 0.07613165078191313, 0.014268448495475778, -0.014688279621946654, 0.12311273166776765, -0.03039153904422237, 0.13159060259935448, -0.05285600545423405, -0.038658249387686854, 0.13346429896232276, 0.01732064633938823, 0.04740527464515928, -0.11418281643143909, -0.009384961337792872, -0.029767146854531096, 0.06273768590193311, -0.20073110231917424, 0.002074955976683639, -0.005074344603168514, -0.03270390286754417, 0.11299292546813755, 0.08049203597067167, -0.13936168931354564, -0.038849651613300666, -0.10794580372029992, -0.026594810847246006, 0.1167039970629925, 0.007402750602484095, 0.04507016885237182, -0.08095297642488544, -0.070970406511161, -0.038893160535335605, 0.27749756415179977, -0.05286713124778932, 0.02503767427810882, -0.03851422732186366, 0.09315390640688619, 0.10890743498783241, -0.19036569849878782, -0.055370757015833806, -0.14095706780743497, -0.10450250013870395, -0.006566363462493747, 0.01710812982283693, -0.12191617630744132], [0.2889001089272832, 0.014071277813907455, -0.17300022609660742, -0.09304458978450007, -0.21992377490887036, -0.061892441582443086, -0.05245329178799379, -0.23260542028201098, 0.17897413829832196, -0.2709477801196954, -0.05968398850042422, 0.1302067751454895, 0.023916244226426554, -0.2905754700740366, 0.19086577967568089, -0.36119031675993657, -0.11970614624073006, 0.21199694234027655, 0.07239787502367374, -0.13384263116199757, -0.3545186897929667, 0.3891837462917185, 0.07864227061994362, -0.11778132060860531, -0.3295352055391706, 0.32155113449783623, 0.1760260543375484, 0.14606022997790624, -0.24745332507069165, 0.04747171589877419, 0.16320812616216884, 0.04339616012905443, -0.313278263562939, -0.2783546924753143, 0.14742237997628696, -0.203954384740141, 0.07520178158980656, -0.02697422572001711, -0.09725803277141257, 0.18251995920119576, -0.5277345382220459, 0.1001583619560898, -0.013333874294145544, -0.15868221045669414, -0.038004176618285056, 0.1518620534521267, 0.163507962268069, 0.26649724740127045, -0.07967998112830402, -0.1228863518668784, -0.03699128003301312, 0.17086349400013554, -0.2905144962959272, -0.22444107874353028, 0.13681094820678905, 0.378412483259259, 0.14157299444923716, -0.18937897465228806, -0.37087856487791876, -0.12161601452208257, -0.13685197558388826, -0.11149075810565136, 0.14842969593982414, -0.1895291494449915]], "b1": [0.30969345684513916, 0.2371966626436969, -0.018997124283498874, -0.03144677690342256, -0.2777353154225207, -0.11832785943020604, -0.15278524036806695, -0.22384841156889604, 0.28410767087293004, -0.3661750655927681, -0.29950131343718484, 0.049397934381562696, -0.00986233998682768, -0.36997770054511436, 0.22322846291650178, -0.3510997255427811, -0.31805936373872007, 0.2440503227665875, -0.03177176519591281, -0.11098099979000052, -0.2945718413911817, 0.32870963284447674, 0.11295877742336163, -0.22579706661617308, -0.358354112573358, 0.2674749412697572, 0.028013081090864197, 0.019944820077220482, -0.3715222010891365, 0.06611338155771526, 0.07943728867405113, -0.07557724691333052, -0.17716880637925247, -0.29227185247839765, -0.00113027918815449, -0.22927804520933542, -0.029122041729741924, 0.0543293338647521, -0.05754545944182464, 0.23836017473336726, -0.38923295520398177, 0.20804526896748157, 0.015383986229438287, -0.1796464068379834, -0.20650765907048832, 0.38066450148396014, 0.09245312645628224, 0.3676413317340486, -0.05574421619656285, 0.002226485253047262, -0.009067215440028918, 0.2462297439839296, -0.2577312728488644, -0.1642259106696021, 0.20509681820160616, 0.37060323131128825, 0.1881035480614568, -0.28497699953114747, -0.3427239480683123, -0.16742460235647436, -0.1301067680123715, -0.07383875405391135, 0.19527876798744562, -0.1745610554689224], "W2": [[-0.2115148733229353, -0.37827648834828964, -0.24780740641986626, -0.11940466757237915, -0.0071774411239489645, -0.09038980251296894, -0.054838021427763825, -0.038985093736646596, -0.14759306380641896, -0.13106391209718143, -0.1737252648224131, -0.2605496126994584, -0.26972320095465174, -0.0883151579174053, -0.1404270230705503], [-0.1066642078750864, -0.10540599528170023, -0.07130237937613246, -0.19230853272813517, -0.09062167472785636, -0.04655757044849894, -0.11086069153374109, -0.1444652055974287, -0.00236702698497981, -0.029603890748983452, -0.05854433161188382, 0.1335254846123642, -0.08625007301196919, -0.41897212760992153, -0.006575855860813674], [0.11510951020684988, 0.11256482364578185, -0.06361787863370602, 0.13336712634392986, 0.034679774594393316, -0.07952665225291687, 0.08162660196024064, -0.08996552992534955, 0.058241076082778724, -0.05344472900486909, -0.10760972072858703, -0.06457913207476944, 0.012656023582469053, 0.003527534024130606, 0.011546364376192005], [0.07253384493009889, 0.12319473086345921, 0.06078912776535013, 0.04172160021127224, 0.07842911572223005, 0.07041706392685865, -0.004535618882410445, -0.06158097534123402, -0.18355943878564518, -0.05918396814475972, 0.0015442169468661158, 0.03477445759477036, -0.11004155169697695, 0.00853920338726499, 0.21210520099755628], [0.047128061339452264, 0.3025839193567201, 0.12967380870109857, 0.1056344409173011, 0.14347161433513198, 0.20165269832729443, 0.1734781052955426, 0.24226273542820984, 0.11125707500272244, 0.0016110426996894993, -0.05671707423111526, 0.062256131948319915, 0.09725724198085156, 0.20000035927088683, 0.03566131387675353], [0.053752506366630905, -0.042298416053905344, 0.028520225155709962, -0.05104889783897516, 0.09595323477074166, -0.05151732945157472, 0.15716952764436298, 0.08809616538258369, 0.08756250223040554, 0.03435862255193804, 0.32471855557115736, 0.055362076900131736, -0.01888981150292798, -0.014131609677440527, 0.06555448941542327], [-0.0842163090548021, 0.12182645467324447, -0.10892262507738402, 0.056850453885795106, 0.1817307805289137, -0.043101441391360844, 0.07149953080813569, 0.2280994879539615, -0.0010236649656109572, 0.056492505579840785, 0.07027410417084212, 0.154480336529423, 0.017541266123978827, 0.21133276131473674, 0.03802647527175385], [0.10592798826961317, -0.0038282036558341115, 0.2983412081151859, 0.10426043761539064, 0.21178346276583332, 0.15276991296523065, 0.21241368856708304, 0.06749888763535611, 0.029595306503046096, -0.02497746307701703, 0.183410864182935, 0.01727221225319304, 0.22096455690677935, 0.13021144234339843, 0.20283539397928024], [0.014211794464978734, -0.09531618392881105, -0.26342515687686907, -0.09600628919694114, -0.09758170415498736, -0.17558271944902382, -0.11435541190139284, -0.10329366948965343, -0.09349758750218222, -0.10875542018550374, -0.07703157073046427, -0.130790498592515, -0.038041782348784775, -0.24071553934473527, -0.1868704453846208], [0.17501355020309417, -0.04855189314946891, 0.22605574759241803, 0.05942783380710259, -0.09516611169586968, 0.08137501845780674, 0.2522044905072001, 0.3176723868572651, 0.26610127363184416, 0.21878689860047917, 0.15412087089967583, 0.045463031122983055, 0.2538630275851731, 0.19550979566551002, 0.2668174961554591], [-0.004232694057423057, 0.1135877156010662, 0.08904695807556665, 0.1238004708343628, 0.18768610320319318, 0.05116323906909665, 0.04589686890990894, 0.022754229486024867, -0.031068679485345616, 0.2886947298109672, 0.2756787306586362, 0.18746842626453933, 0.2632492939000115, 0.13862675266592056, 0.13701964022334415], [-0.05058413695621148, -0.11091747760535904, 0.08675142058973984, -0.03796882448985184, -0.030033565969843922, 0.019783231374379665, 0.17414350357969985, 0.01792293934360411, -0.06307144463215447, -0.039417250422940954, -0.14155608833311029, -0.09373786074306036, -0.01636434513517259, 0.03814520292952392, 0.0001433783236275768], [-0.0011005163849789612, 0.01624108055845823, -0.07582982192894662, 0.043699408748014514, -0.07087791271920711, 0.13494836985374206, -0.03705275236071349, -0.05923096855236676, 0.037649441516001796, -0.24293923413167684, 0.13981815919154833, 0.13457246565580308, 0.004334616680870451, -0.11865143284692235, -0.1946303321935706], [-0.0003667212657189653, 0.21018602534074976, 0.06414455832247314, 0.09437434018425274, 0.2435668339768604, 0.2191619504515234, 0.16255905798804596, 0.2074241015649738, 0.24274228080267257, 0.31924919612280545, 0.1897914569409438, 0.10268559675115548, 0.212199931551339, 0.09873024112242333, 0.22108616267441653], [-0.17668869964468129, -0.16297447753639485, -0.18710571817352034, -0.17691954701349966, -0.12631266886653159, -0.12332192928812274, -0.028493506988969807, -0.17029577480478855, -0.07213676014511824, 0.028927443947781295, -0.015926296143132318, -0.12062994678003268, -0.018146194786745916, -0.15261385547569062, -0.016832780565043302], [0.27794143388965303, 0.1857990975531419, 0.1394535914493293, 0.09815041914460959, 0.09719979090958396, 0.14053475059538884, 0.20296273997810554, 0.13393838564535634, 0.06844065679014187, 0.1755017726802083, -0.020858170583691663, 0.06837219284827524, 0.33208181168131656, 0.30709505013498234, 0.18604891910117705], [-0.0261445943729278, 0.15053659337501277, 0.0611896953176903, 0.2383652893650687, 0.34070878340013244, 0.14163882102628578, -0.0007268438986152329, 0.13497859205926727, 0.21875638667485714, 0.04905725587072792, 0.09190634674611507, 0.16439998540469358, 0.258362038457927, 0.1535932012947898, 0.07451300697583484], [-0.1296302932431965, 0.016530317072560884, -0.05866899910553045, -0.19152025172900256, -0.17743374959342723, -0.21631340744687666, -0.1674334023828098, 0.04967346929655871, -0.13385065638740454, -0.11583663661680475, -0.2036411266533891, -0.023301524242284266, -0.09453117812531048, -0.23521387941064414, -0.1694692495778387], [-0.02517043537991938, 0.02719519247912105, 0.037348064281402873, -0.047924321533427926, 0.10551027925861538, -0.07828105259876357, 0.07471717064279203, 0.022335936993929044, -0.018461537747871428, -0.08847021817710149, -0.3416568311172813, 0.10668731691054413, -0.07807066330845766, 0.024264854824174724, 0.2829906903702846], [0.15429675272388993, 0.08362287266507008, 0.10198306585093861, 0.027888664153464852, -0.007015734993356521, -0.033991326410634785, 0.10516035333355139, -0.02821237734605663, 0.10071207951081905, -0.1273716369961843, 0.16003352094185783, -0.04476097288553721, 0.05684832802293885, 0.07785554704322599, 0.16818003809407622], [0.13790554193635768, 0.28348321177136654, 0.10426875591776387, 0.22361568009430083, -0.009219198103474964, 0.07498415723748746, 0.13495093006631728, 0.19102364873211383, 0.24772211818549103, 0.1017624645480452, 0.12161013131601064, 0.2151869983070381, 0.28726730939823025, 0.031702994250386037, 0.08738267208175986], [-0.21937387863258587, -0.1207558730083343, -0.22565457858783913, -0.051400004605987606, -0.1723836317671924, -0.1904600461297854, -0.351539744842081, -0.1455154974001433, -0.32307015369972836, -0.04605269621553422, -0.1874107770069353, 0.037803530529713886, -0.15940189238141564, -0.1325663889135266, -0.15528695688852476], [-0.09937341547225294, -0.02746823502186783, -0.057184075612053346, -0.09690134855195642, -0.05501162653703146, 0.014847094297283859, 0.09157644365723969, 0.10796751660247737, -0.16314286472285827, 0.08222045857108774, -0.0031520711125780456, -0.2507085779405086, 0.06053158264091124, -0.028330629779396835, -0.1250959171128232], [0.09292768200046617, 0.04451349978450957, -0.0291363676966248, 0.14934522732822647, 0.040960756304133684, 0.12089916837560684, 0.1447317745942198, 0.03671134833719124, 0.06395891560760585, 0.06011029608923025, 0.11493902657664629, 0.12380638315834325, 0.09320338389300183, 0.15531506151141736, 0.34812036607550545], [0.17630649806956078, 0.09712486025128465, 0.23838271607476053, -0.013074269343665157, 0.4163829789575277, 0.07391012503750183, 0.09758531172928564, 0.21224673531903204, 0.10429854174771194, 0.15240032932728148, 0.49763211348959663, 0.3739959234512074, -0.003138215466731583, -0.00016614907931609564, 0.12123095731808012], [0.004129261251120572, 0.005521478164473485, -0.02408735931500943, -0.27090235560842113, -0.0687518468495258, -0.15164926517569371, -0.10131509643213386, -0.17627974505149838, -0.12049717954613588, -0.2988014446327089, -0.1300014802847986, -0.18668750633629505, -0.06897729711669377, -0.084626345830963, -0.2123412961385946], [-0.08089544363119228, 0.043385264918832434, 0.038028489240411946, 0.09317243631340999, 0.07854482363661969, -0.05048055364629723, -0.4056331272705797, 0.23126566306247057, -0.09140457412722774, -0.06574956887245291, 0.07808908781981826, -0.16911525677184663, -0.04868368247902981, 0.08129701616458486, -0.04629360739256498], [0.032182927268531, 0.05122676534669634, 0.00950714826783898, 0.005613254923042447, 0.13741462336943136, 0.054702831506202615, -0.32914150604898773, -0.061736141848972345, 0.02749774240989196, -0.013601878080548283, 0.04905393070061212, -0.19883070197356537, 0.008159252840048621, -0.053512122879745536, 0.07116489820095749], [0.1622284556782715, 0.10043970814795103, 0.11992030580762218, 0.28741831885010394, 0.35287301221634226, 0.12900477261872426, 0.09409598327140559, 0.42613523112131835, 0.14490701204202613, 0.038547673985934054, 0.15549730031356873, 0.30816366588729005, 0.19711859977299395, 0.31223671225198957, -6.805881674621995e-05], [-0.10747173711853736, 0.14097845011234802, -0.17502989503959293, 0.0030403405917691032, -0.12523799465782148, -0.11076833479936433, 0.010105106446074368, 0.060279352126739426, 0.15221717528646084, -0.05381396720575182, -0.09967372839118857, -0.24728406571470918, -0.04194681135217007, 0.014450292534800258, -0.0179161314121778], [-0.12343014616337415, -0.015178729426939172, -0.07129905778749604, -0.07979743145508651, -0.020100382671580735, -0.10565986214822658, 0.11152061426564355, 0.06436333621307722, -0.029082691686917295, 0.03668772152344956, 0.11075697870832396, 0.0437337833138098, -0.0633657752924583, -0.2307289353811367, -0.18501759885235133], [0.1457933339432868, 0.3135071279324939, -0.1435335239547114, -0.04348140287344883, -0.08526063663836007, 0.13392225906917407, 0.05629133912333, 0.013954238949459128, -0.07210519163243448, -0.06236540337219025, 0.010705223043157632, 0.05011266262217846, -0.036552545837071244, -0.008820084446471105, -0.005442744125128227], [0.035033895448286445, -0.024065098055500448, 0.12570601298536835, 0.32596439314576364, 0.14354422841130896, 0.012632169732626838, 0.08000023781815313, 0.054330218910265834, 0.19515995988480853, 0.07255199727443215, 0.13361932703227675, 0.09884312603324269, 0.025777386361685663, 0.036752931966505635, 0.05664199991968614], [0.17484304209013393, 0.2472914553239101, 0.18897063876089915, -0.1231314078850093, 0.04508688753986851, 0.12443025587987858, 0.1338748537416316, 0.22031217282360177, 0.2538953384656042, 0.0238837630228743, 0.06917590583784683, 0.14161359864767084, 0.1934820841231341, 0.017421056350656664, 0.12090517803173141], [0.11119927150448157, 0.07565770816358622, 0.048336946593817036, -0.15552607028908388, -0.03943860886605363, 0.014065732312001391, -0.14927585187734463, 0.0037047589082287585, 0.0033909770342546238, 0.12346906393393098, -0.19192265599423983, 0.04982468461233682, -0.06627763914954739, -0.16974978508316954, 0.028498809603791784], [0.2506088897457157, 0.19328904200799688, 0.09727490058297551, 0.2045878627735422, 0.14306009153736277, 0.15329865537141701, 0.0740500978459724, -0.04276290111215916, 0.22276545049972996, -0.005747239044154139, 0.05538076397110142, 0.11616760646894922, 0.11785954538749888, 0.1351559391300684, -0.05478409220259686], [-0.1067333054263162, -0.014214063429918137, -0.018703114537983248, -0.12695026105051896, -0.09146096473360558, 0.06073418135261519, 0.02071536378204017, 0.05227516961301101, 0.15341564132708435, -0.10233711913013438, 0.05815676874150234, 0.10430697508419527, -0.018056998521171024, -0.016474152903870543, -0.07030511706224914], [-0.013915748997235139, -0.0051364601033377704, 0.0894705876178334, -0.05838110937878641, -0.15071543848378116, -0.019804875007841293, -0.05924789927046452, -0.1417394952698482, -0.24830779696999702, 0.16629942830689218, 0.023718782159261997, -0.08975293473125753, 0.07651618458849649, 0.04337310553785231, 0.0467634840210459], [0.09037371498410876, -0.0950485303258318, 0.19474578367610892, -0.06415064318187683, -0.045081997023579415, -0.1265203625917807, 0.09936035498179212, 0.12562567204446587, 0.060277466116563254, -0.19605962155880197, 0.09799622866507714, 0.1855924018389702, 0.3190314666368171, -0.10261928836349037, -0.2243963283243203], [-0.22706395966767143, -0.21181441844064108, -0.15330799712783758, 0.0021100046439079994, -0.2269649967960895, -0.21269932977580902, -0.10571184682545426, -0.09472521088067136, -0.06921876622273723, -0.0030488597746741275, -0.26962219468783943, -0.11221992488286113, -0.015394664968052743, -0.048404867372211335, -0.04530426469552884], [0.22130991642461337, 0.29136242846480387, 0.11161622306259575, 0.18469732948481699, 0.17243112806124347, 0.2625088179497887, 0.23611973240597345, 0.27280376083548097, 0.1845694472180384, 0.11752953126486641, -0.08613736408155805, 0.23254326285532548, 0.389304742920858, 0.10344094522992953, 0.4164053264794377], [-0.14315483055417963, -0.05614046058904093, -0.11217243870930936, -0.06925924718476426, -0.14408809577681356, -0.0762394580684019, -0.1713703025615849, -0.10816281016122563, -0.2128498670183759, 0.04679682798201987, -0.0014397003732676088, -0.19326790595084373, -0.1351972414073983, -0.013239807346774362, -0.01669555920174717], [-0.006137608308119929, -0.15005276643079224, 0.17599198107070185, 0.10066602646751675, -0.07228133426917256, 0.24758468484320906, -0.002381353781493654, -0.11373547657775043, 0.06181643529987956, -0.0030534865264840298, -0.17693583967236132, 0.106025296594463, -0.12501299638477065, -0.0008558052697180611, -0.013535782587166971], [0.09817407930942605, -0.05969849495783386, 0.03346549725843981, 0.2714526859479249, 0.07229009873853667, 0.12218583539782091, 0.051964654117325614, 0.035480696430943745, 0.0565829318688422, -0.02172097444128263, 0.337474698304033, 0.08821138292820736, 0.12257297757030661, -0.20650009053370014, 0.20851765186388807], [0.13989893476674975, 0.07836306730922328, 0.2244410215880195, 0.13493734674533503, 0.042841508598223554, 0.05237797668839109, 0.18884426749235, 0.05437266263850638, 0.056217183118583064, 0.05178141857816547, 0.15540699879675127, 0.10623070333588583, 0.04308535481882065, -0.0375929653410953, 0.1938675984768714], [-0.06386283765720807, -0.0909672281108957, -0.2760709417223998, -0.07102921010322956, -0.11686240201066159, -0.21271969234151933, -0.3445974803327173, -0.12977518607646335, -0.025835445316087426, -0.100879632529396, -0.17458958977594483, -0.29298033633073456, -0.24944334574366359, -0.2881680289217926, -0.26926071196411583], [-0.048077747992661936, -0.017656775010078108, 0.04341752377758206, -0.01061528184634008, -0.017843749375672735, -0.17975411123454074, 0.045469256296515104, -0.08938317925366741, -0.24840650743479883, 0.0508940747363223, -0.03997138340937029, 0.08815599303478348, -0.11736492548789108, -0.12480196821789317, 0.01108083817548215], [-0.2883438107384094, -0.18251779595328052, -0.10016913203641298, -0.16298095424535516, -0.22868741423914757, -0.3246775021727608, -0.11738568002517034, -0.20439798689422703, -0.22502124947146118, -0.06405156364558531, -0.39647186477296603, -0.10466181513192171, -0.08326405732114153, -0.01576019150937109, -0.08690061649841305], [0.05134997974862693, -0.021879077289372884, -0.01588917998171461, 0.05453612734659556, 0.12003711078506941, 0.06957799464163243, -0.022407066374106478, -0.16847640462506916, -0.08658621637261774, 0.03939724287769787, 0.10544059954374013, 0.10404430707100717, 0.07401751802661172, 0.18890100375595836, -0.050465133260093935], [-0.07114716217964634, -0.00824128067349411, 0.056384065515203544, 0.046309484582226446, -0.19465052044717046, 0.05888416264210872, -0.014741256815710358, 0.046523228262906474, 0.019188216978847355, -0.11568122188928456, 0.03459852562018488, 0.13487348457350576, -0.028787993254955454, 0.11028397507901655, -0.11878006332954377], [0.050498696224575985, -0.074210099920856, 0.014106840304989456, 0.10419787898288914, -0.08188317356947049, -0.13188067259046793, 0.09132407487381439, -0.06872161418317665, -0.03816701949697604, 0.035683193484067684, -0.06999322215855801, 0.08793317351857463, -0.14598055646648425, 0.06980518694565033, -0.04726603000233025], [-0.1823025521164673, -0.15215642546134087, -0.16968711761302066, -0.3146451974223343, -0.11408902573255544, -0.16841831768209917, -0.011579128086914, -0.2033053310779645, -0.07177254920834722, 0.030523768063029127, 0.010994299255390572, -0.2757496098899753, -0.18472456296969095, -0.05160737447086773, -0.07093644578617574], [0.11728460760965835, 0.13255495353561256, 0.09783918936909704, 0.18324955402303733, 0.10071791140011242, 0.021326270262099146, 0.17567454061660115, 0.19267919355228247, 0.19380384190134362, -0.04906624500576087, 0.12163999841858684, 0.0953781561533871, 0.09709724451041651, 0.363546503347415, 0.17880397860919015], [0.25482409768506104, 0.11957809329019584, 0.03487954520120764, 0.16524217547298706, 0.23071942487852026, 0.050450967370168444, 0.06040061868745604, 0.23125403765445054, 0.0012752195489267335, -0.005274206247278781, 0.01106791256818654, 0.09591030867644049, 0.09717193972615458, 0.12234614818187457, 0.04340659025858404], [-0.1762713877924577, -0.30701524217158, -0.07621226569354406, 0.0310317069175042, 0.0197987173408939, -0.010604331963746773, -0.24059084483137974, -0.14576792144102652, -0.06524246423424712, -0.06455144433844023, -0.08306205518929008, 0.009219665746329169, -0.15314101435675392, -0.08818219214675169, -0.03814686534927556], [-0.06145564505251538, -0.2374398447285943, -0.166916074547361, -0.26541585528094724, -0.22581243272835275, -0.3266401388845564, -0.3605347173132007, -0.24430260994273448, -0.23273271061703024, -0.13695907977258853, -0.17012680449753678, -0.1193863969766993, -0.0414050804121786, -0.2456694677145745, -0.17425389287751533], [-0.2402621396421874, 0.011656217976421713, -0.010544648049290225, -0.15582952167849867, -0.05080705878054948, -0.1499085417615321, -0.03430015462846498, -0.06893213464791181, -0.10205603496278592, 0.0122696879666516, -0.09380841697872036, -0.14894647573175276, 0.11810106931969852, -0.306987383719428, -0.09000699799165729], [0.14598639059447804, 0.183081972601176, 0.2679316007280889, 0.3155357726199663, 0.2216045971742828, 0.07744173520648882, 0.0932792537502844, 0.1342694319002909, 0.10559583688058906, 0.14939178300757183, 0.20189208740863687, 0.16994547731289536, -0.08806090650582246, 0.3109864185765415, 0.08790579914431192], [0.20100029141477727, 0.3087352352541336, 0.2841529335472598, 0.16150127977348394, 0.010649341571087115, 0.23012831462356972, 0.2318715030940918, 0.17967855173296277, 0.313295468970587, 0.02018432712043609, 0.01905040798334335, 0.08113426442396691, 0.19097562394265105, 0.016963731702211462, 0.37026494071751437], [0.14545525400542075, 0.02595946577271659, 0.06022103488875571, 0.08590048658908726, 0.08241739572854768, 0.03252097961909127, -0.006122841310171287, 0.1465056662438318, 0.04386221602036509, -0.17179608824123777, 0.10604085041079202, 0.14442695540454062, 0.11321605651665866, 0.1949135135028734, 0.07736560482424223], [0.02295336646162274, 0.11562828343500799, 0.059318956884990025, 0.05648863592944586, 0.1171296845436584, 0.10632241791372422, -0.00410788028126967, 0.07878854021978836, 0.11863891430683503, 0.05469313447106195, -0.048707218195809664, 0.13763141270247517, 0.021589655199477312, 0.03486765230823777, 0.06837187658219274], [0.09969913018272603, -0.03233117747785116, -0.09592745845794505, 0.26242044319454, 0.10052913181292242, -0.19982682774382224, 0.09497992242435709, -0.04678422319218062, 0.0505130894770876, 0.008333032440136435, -0.20064895108416056, 0.1475637061289282, 0.08969136446045291, 0.038784086973494815, 0.08486785885903707], [-0.07861719933569826, -0.15555787584935998, -0.1612718162198593, 0.012824824032088159, -0.09687493693604934, -0.027251799772746402, -0.15479715830823215, -0.07869230125716788, -0.06754598991511575, 0.0021655117394518185, -0.20790629520953857, -0.038261553880963806, -0.12670449660595773, -0.006205019601609782, -0.08666347772186517], [0.10516633562476287, -0.07389662943786869, 0.11663375896944407, 0.11529935244082419, 0.025175630361290953, 0.26040491406235794, 0.07115516640099019, -0.003837176895071776, 0.12317026702772423, -0.16393763185166688, 0.10670015902468079, 0.1776267652286381, -0.001509171868980098, 0.13602410654838992, 0.10336867432320679]], "b2": [-0.3679016085608379, -0.39727730054775673, -0.3747940950826575, -0.33345130181804256, -0.35693594252342226, -0.3491328377682955, -0.30707978016252696, -0.29813414249409415, -0.3796700105554583, -0.2807901336957546, -0.4189258711673939, -0.38608500983562477, -0.38000265875814415, -0.36812502794040897, -0.30018861288772863]}